Region,global_vec_0,global_vec_1,global_vec_2,global_vec_3,global_vec_4,global_vec_5,global_vec_6,global_vec_7,global_vec_8,global_vec_9,global_vec_10,global_vec_11,global_vec_12,global_vec_13,global_vec_14,global_vec_15,global_vec_16,global_vec_17,global_vec_18,global_vec_19,global_vec_20,global_vec_21,global_vec_22,global_vec_23,global_vec_24,global_vec_25,global_vec_26,global_vec_27,region_vec_0,region_vec_1,region_vec_2,region_vec_3,region_vec_4,region_vec_5,region_vec_6,region_vec_7,region_vec_8,region_vec_9,region_vec_10,region_vec_11,region_vec_12,region_vec_13,region_vec_14,region_vec_15,region_vec_16,region_vec_17,region_vec_18,region_vec_19,region_vec_20,region_vec_21,region_vec_22,region_vec_23,region_vec_24,region_vec_25,region_vec_26,region_vec_27
RU-AL,0.0,0.0,0.0,0.45281874,0.0,0.7021971425,0.0,0.549030195,0.0,0.0,0.0,0.0,0.0,0.015690469999999998,0.24758201000000002,0.285648865,0.8817418075000001,-0.0,-0.0,-0.0,0.6338252025000001,-0.0,0.09660731750000001,0.5044997275,0.2580674375,0.55995345,1.5054035525,1.0719688375,0.0790693555534351,0.01007028563143875,0.02603131072882024,0.42355748119802356,0.044231891031327034,0.6569341089725472,0.05123220395072185,0.5035966187596308,0.0201405712628775,0.09950563994079528,0.03192205019476298,0.01007028563143875,0.0,0.03803498357851266,0.19806560665716716,0.2566711325873957,0.7915325500328945,0.027586551984767272,0.0,0.0,0.5070601614678641,0.0,0.07728585386261462,0.4035997820144218,0.3114777061872635,0.45993802871707246,1.2493772990090646,0.8575750693304902
RU-ALT,0.48443471000000005,0.089653045,0.11350684,0.3704407225,0.16813801499999997,0.383360175,0.28362851499999997,0.2563718825,0.0452179775,0.3399818025,0.136820585,0.0376378,0.0218171975,0.06236208,0.08471288,0.23726332,0.3253309975,0.201268765,0.38712634,0.30533013,0.090338165,0.1499173525,0.04535135,0.1547712725,0.171675435,0.24401582250000003,0.41586764,-0.0,0.3775249720441156,0.06794371737486031,0.08434099689353776,0.3547051331504569,0.15238744963906267,0.4708820826201472,0.20448218863880355,0.2905587338727063,0.041277606176915844,0.37108264501140736,0.13505472581773215,0.028062440721710467,0.00727239933966034,0.049774895250535654,0.09215113869573381,0.18320256253518222,0.408575830554007,0.2467420047486043,0.2536553376339973,0.31159518686719906,0.15586927247366833,0.10763301519801094,0.05812208116299288,0.17353983689588415,0.17330426259755713,0.23495743210631007,0.5510478158691753,0.25569838610674617
RU-AMU,0.3941854975,0.1348466225,0.1689277125,0.319503755,0.2794851625,0.40874640500000003,0.2686162875,0.28065981,0.1103012075,0.42801442999999995,0.2745663375,0.0790306075,0.042732105,0.0592661175,-0.0,0.032744999999999996,0.17428362,0.095227045,0.138159525,-0.0,0.005829745,0.04208291,-0.0,-0.0,0.40979317000000004,0.0466429925,0.18742890499999998,0.0420718625,0.4009904260839103,0.1475621199398872,0.18397239286166006,0.3285072108218971,0.280066866087965,0.390171716670689,0.2738452960309714,0.2675666423720024,0.12860866928093276,0.4168020873787189,0.26982935307170236,0.08958443580098971,0.05917848963900507,0.044843452438719025,0.0038371819639794378,0.04605620598229102,0.16136096221459956,0.09877253679684025,0.2478967986119663,0.027352518899204935,0.003331283412829243,0.09358624080915505,0.0,0.0,0.34437801267301754,0.059900356055777974,0.19735775920776602,0.02404106458559362
RU-ARK,0.38212370333333334,0.07724789333333333,0.10820287666666667,0.2655383233333333,0.2792289433333333,0.44909336,0.22543318333333331,0.18685413000000003,0.07526627666666667,0.5278607133333334,0.28103584666666664,0.05534259666666667,0.0,0.0009935766666666667,0.10311468,0.05418687666666666,0.20102472333333332,0.19073812,0.26134151666666666,0.04457501666666667,0.033974736666666665,0.04909122666666666,-0.0,-0.0,0.4691004366666666,0.06968297666666666,0.15324503666666667,-0.0,0.38493147935544414,0.08166022973430528,0.1005327629519943,0.29495696972774255,0.2443368006538118,0.4581476100575698,0.2237299504464724,0.2219708028394887,0.07537682512234396,0.5180415076515433,0.23346460238568725,0.03632535604184777,0.0,0.02159619098491029,0.044192006198329914,0.0944368459711019,0.3084975685441313,0.15572456616061578,0.17321708303189018,0.03682055865248617,0.01456060086102093,0.023180596287154787,0.003009384643949207,0.06069968531066502,0.37493494398276744,0.0747947528743794,0.2816498107628522,0.034885477595342176
RU-AST,0.29296174,0.044975325,0.09504716,0.352886225,0.17821696,0.5200377025,0.1879932025,0.37367875999999994,0.050466705,0.3332475275,0.159293955,0.032398105,0.0085093475,0.0225062525,0.16786233750000001,0.161010675,0.41627686249999996,0.182181765,0.357316815,0.267531615,0.14906744,0.13709809,0.0193228325,0.167760525,0.21771688500000003,0.176453075,0.446761545,0.2731173125,0.2929617415261906,0.04497532418276124,0.09504715912990112,0.35288622718281215,0.17821695864758236,0.5200377028822044,0.18799320282798465,0.37367876178839443,0.050466704964814514,0.3332475296304386,0.1592939568997078,0.0323981061057702,0.008509347504766205,0.022506253356844395,0.1678623376211904,0.1610106753176651,0.4162768620806912,0.18218176739563002,0.35731681500958395,0.2675316148579456,0.14906744040021608,0.13709809019951308,0.019322831593828547,0.16776052273069159,0.21771688572555709,0.17645307502545637,0.4467615434944955,0.27311731230859726
RU-BA,0.34864871875,0.02547187625,0.0291827625,0.37541399124999997,0.0557860175,0.5041449950000001,0.1730875775,0.30230320499999996,0.02502467625,0.30883678625,0.04171956375,0.01814349625,0.01183897625,0.04709682625,0.273234135,0.33737839875000003,0.61292339,0.11176321125000001,0.1967576875,0.13631332,0.2682540775,0.08524080125,0.21263749875,0.29442946875,0.11553993499999998,0.39409847624999994,0.7982350775,0.6458279325,0.33224585142059526,0.04181226173180896,0.05611795300645573,0.3683229653836398,0.10991834157871574,0.5030788119298751,0.1701435512578005,0.3259599590871168,0.04618312945232865,0.3424562877169181,0.08192919182683754,0.03499085343572627,0.012948397893821047,0.059052757962918576,0.16754406567654906,0.26197928349863603,0.5661234318330318,0.10873930633332973,0.14486676146644203,0.07789332583597135,0.20340049377166763,0.06420441730559566,0.12150714189063236,0.23988747676655128,0.19939716667177193,0.300058664268839,0.6883399536220544,0.4340204156196928
RU-BEL,0.25030915,0.04449708,0.0,0.39200586000000004,0.088994165,0.560618285,0.18041438,0.34714707,0.0,0.252985995,0.0,0.0,0.0,0.049122479999999996,0.080269485,0.343242885,0.684783115,0.06347732,-0.0,-0.0,0.26724295,-0.0,-0.0,0.24761402,0.304880795,0.418489385,0.86563276,0.315544985,0.17693762610945818,0.049379478026745804,0.054481488229929646,0.3738438276964226,0.10732360001018278,0.5844411140805083,0.1242389282813358,0.4218933582893879,0.04843691152574934,0.19446819987285296,0.0775415746014061,0.03336127664901261,0.016151799810715666,0.05356597041695028,0.14310913504241324,0.22090738196640622,0.64241260252838,0.05794134076088185,0.19906865230294435,0.13212502530468284,0.3073594150545153,0.07986877285951541,0.011668941260685881,0.2596488142683677,0.39274204145093483,0.3070888088567044,0.8674710595713087,0.3977809456515576
RU-BRY,0.28792977999999997,0.04069211,0.066850954,0.19446806200000002,0.096216318,0.55136039,0.104003702,0.229740054,0.047834294,0.486125338,0.062671558,0.028947202,0.008074618,0.056478394,0.0161998,0.223405312,0.53932336,0.273158652,0.15891740199999999,0.028484362000000003,0.10469893400000001,0.057469707999999994,-0.0,0.145846996,0.6157873119999999,0.30904389400000004,0.480723688,0.136771162,0.3122017232753361,0.034325296868994444,0.08487224956114152,0.2735067146317182,0.12833899784274022,0.5348135664573765,0.14595565819131298,0.2885802061762194,0.07089242878832831,0.4490845473582733,0.06268552941284304,0.031949075292398085,0.0033644240216893356,0.08463662688450058,0.010084185902660563,0.2485160375857202,0.533472540567088,0.15840201121681965,0.06621558433694973,0.01186848447231883,0.1278066942248776,0.02394571126945833,0.0,0.20400531770219868,0.45539821648539897,0.29627724820173196,0.5335814842863791,0.10521892674986036
RU-BU,0.38865055000000004,0.08636989375000001,0.11945324875,0.288338825,0.2022806125,0.4039035737500001,0.19646622,0.21786393625000003,0.08766929999999999,0.53354393625,0.15586174625,0.0839024975,0.0464570075,0.04281780375,0.0390505175,0.16340237625,0.28642484375,0.21591583250000002,0.19849336625,0.11889918875,0.00204263125,0.087137835,0.006329663750000001,0.04515672875000001,0.3664925949999999,0.14024033875,0.2632163275,0.10315911624999999,0.3886505500642491,0.08636989288979745,0.11945324898431499,0.28833882506197006,0.20228061265532668,0.4039035748920582,0.19646621935002087,0.2178639367429536,0.08766929996036771,0.5335439370057476,0.1558617454173498,0.08390249724270099,0.046457008328509845,0.04281780383761618,0.039050517794795854,0.16340237569315594,0.2864248414608352,0.21591583130994338,0.19849336600250564,0.11889918889432648,0.00204263164311611,0.08713783567301281,0.0063296637228790215,0.045156728678357655,0.3664925947303445,0.14024033749490541,0.26321632805296197,0.10315911640856988
RU-CE,0.38786786,0.04838183,0.14514549,0.32144192,0.2657059,0.43461367,0.25204289,0.29947504,0.07668339,0.49678255,0.23969308,0.0,0.0,0.04839638,-0.0,0.12172711,0.50752433,0.25056991,-0.0,-0.0,-0.0,-0.0,-0.0,-0.0,0.66000328,-0.0,0.56542877,-0.0,0.4012594208711322,0.07557135543123951,0.1401703381170929,0.32610560026332774,0.23856983686185676,0.4267430490041837,0.26144522041026236,0.2978553167645224,0.08623598961614397,0.4664043568968312,0.1837236952955211,0.04707884265086618,0.028711189175594735,0.07967606298510889,0.0,0.1749849505811196,0.380182263126605,0.1477798752359688,0.042307134258374596,0.03153779685384909,0.015813470805608642,0.004431659075148447,0.0,0.13167518364412328,0.5046686873907742,0.12136696593048481,0.38835737330559644,0.0
RU-CHE,0.2116844272222222,0.05366518222222222,0.07393475555555556,0.378199068888889,0.099531785,0.5582505083333333,0.10438007611111112,0.4108123705555556,0.07748882666666668,0.2424056,0.09569843333333333,0.03034461388888889,0.013397369999999999,0.07431677555555556,0.18921428777777777,0.20250494055555548,0.6245674977777778,0.09947872666666666,0.20783171166666667,0.2023349561111111,0.27686197944444446,0.09901770666666668,0.08271139611111113,0.33575309,0.38311103999999996,0.3035681699999999,0.7903218366666667,0.567850708888889,0.19640181352118183,0.04284828458818667,0.06696792054248943,0.38768981482371445,0.09581166103622299,0.5691456562602502,0.0947315671968803,0.42421813501453554,0.06590699221429316,0.23342482024588268,0.08628141706042204,0.02946409687536285,0.011795445448892496,0.06655606885599595,0.1667741840691139,0.212099586987986,0.6477752704127387,0.07578890113780459,0.14963883254306382,0.14568116845042653,0.2882964207047599,0.07339198600983556,0.05989048133672127,0.3277192228709521,0.3550133631612888,0.31459402939607267,0.8171621354573463,0.5350482552902014
RU-CHU,0.34323321,0.0,0.12276353,0.33033653,0.23222787,0.49369292,0.12276353,0.36324564,0.13667053,0.51360553,0.17563491,0.0,0.0,0.06104824,-0.0,0.1357613,0.53113138,0.03807013,-0.0,-0.0,-0.0,-0.0,-0.0,0.05085268,0.81298131,-0.0,0.36084963,-0.0,0.3432332082753942,0.0,0.12276353416616058,0.33033652698083865,0.23222786751545826,0.4936929218092583,0.12276353416616058,0.3632456387619,0.13667052523042053,0.5136055307364411,0.17563491051776803,0.0,0.0,0.06104824427882044,0.0,0.13576129970636985,0.5311313813883785,0.038070125173179405,0.0,0.0,0.0,0.0,0.0,0.05085267821031549,0.812981305265949,0.0,0.36084963479396265,0.0
RU-CU,0.25431932,0.09203214333333333,0.13411677,0.40758099999999997,0.16931006666666668,0.52174131,0.17899424666666666,0.36596965333333337,0.11815946,0.2693289566666667,0.11567381666666667,0.05932415,0.029612493333333333,0.1317868,0.09456639333333333,0.27358597,0.4478981066666667,0.12559062333333335,0.18352496333333335,0.27989897999999996,0.18656708333333336,0.10450755666666667,0.01996345,0.23415947666666667,0.3299741133333334,0.3475503766666666,0.5494714933333333,0.39730156,0.2649022314763597,0.0785593565968814,0.10668402532264899,0.34997491394975827,0.1622187374139865,0.5216139622530923,0.15105375559886136,0.36407288652845854,0.07985956263261011,0.33374761982913187,0.12671262107058062,0.05801979646029667,0.04018481813382061,0.07981813014779833,0.06085409387636217,0.19080931427709533,0.4811268346044087,0.1177090568737217,0.170171490643797,0.11995670569924406,0.1547422748309161,0.06753791566853014,0.008555764137667123,0.16888851157768445,0.4343396069979644,0.255634985948548,0.5200045423360413,0.2303565009096004
RU-DA,0.21341295225,0.08879616700000001,0.09988960024999999,0.37105200475,0.11644974125,0.5586584365,0.14499204799999998,0.41376640124999997,0.04555995525,0.2014817115,0.08427407225,0.05413056075,0.008882324325,0.07610101465975,0.11352453074999999,0.2126926145,0.55374214098175,0.036532946,0.152304075,-0.0,0.30787033925,0.009131567975,0.0414753395,0.325379662,0.27326631775,0.30627904247500004,0.831257805,0.491017475,0.2881653272587564,0.07681292116105698,0.11642406552188456,0.3539004989620569,0.1670807448087588,0.5122678065365917,0.1884017666766859,0.37425206942271844,0.0822859273653819,0.3099505028065324,0.12644972663806855,0.0589990468360132,0.005075613903047298,0.0871676736258423,0.06487116010726715,0.1746032307374794,0.46517136638850437,0.09104561483343773,0.08703090005573573,0.008051101211505896,0.21175875347982226,0.00521803884187534,0.023700194066913097,0.25095448473420545,0.34105958710435835,0.24700797950278316,0.6102728283392758,0.2805814144943245
RU-IRK,0.3933674615384615,0.11133718230769231,0.15749082076923077,0.2743498576923077,0.2172350107692308,0.41241889538461535,0.21614159538461541,0.2285553446153846,0.11244198307692307,0.49342498999999995,0.19702599538461535,0.09234562461538462,0.04752130076923077,0.06432706076923077,0.1163593823076923,0.11758825692307692,0.2566901676923077,0.19778415769230767,0.3116947653846154,0.13036191,0.06556302384615384,0.10016422999999999,0.09874899000000001,0.08227184,0.33823303999999993,0.10057602,0.25713740846153843,0.2368449192307692,0.397560172337163,0.12368043332702701,0.1625932479904581,0.29219387452740364,0.22667304302393768,0.40261269063390076,0.23810670456550473,0.23059257667328167,0.12496689409721261,0.4740217028774894,0.2002525263191359,0.10146104289761688,0.05033576745950286,0.0742268237718546,0.0806392383669989,0.1241867814818735,0.24291428406805735,0.16223429032988765,0.23973424886583306,0.08919499014926392,0.04485891065872645,0.08133110922698114,0.06756509827722322,0.05629125858341733,0.34741357992695937,0.1296935878184919,0.22699973948661598,0.16205178685826513
RU-IVA,0.18582157714285713,0.01896589142857143,0.028762754285714287,0.26317058285714284,0.03893660857142857,0.6276345185714286,0.035484032857142855,0.3567823371428572,0.022779681428571428,0.32296790714285717,0.05904225857142858,0.011966145714285713,0.0,0.04261513571428571,0.09829887571428572,0.19752722,0.6571436114285714,0.3067865928571428,0.2913135514285714,0.3440855014285714,0.2979513128571428,0.12673827,0.01778988142857143,0.3030103685714286,0.6028560800000001,0.43101165999999996,0.8363955685714286,0.4566546800000001,0.17389384363842228,0.008297577651586915,0.016231520090369465,0.2852335908628301,0.04771921168047561,0.632769791472073,0.04051965021314475,0.34794548459312574,0.017339478627683483,0.30091965524031744,0.05855103904430931,0.01101683891363768,0.0,0.03651998122049648,0.1163956411866044,0.21956193533820254,0.6731297601530782,0.25763576027483515,0.12744967900097418,0.18303548636517034,0.32505640921048234,0.055447992968633064,0.025292187021169275,0.2824955409363661,0.6430053652516533,0.4441982180057699,0.8895350462915959,0.5055211157744591
RU-KB,0.384759015,0.166276805,0.2035879,0.32196350500000004,0.27249307,0.39379825,0.28391798999999995,0.28344051,0.141211145,0.44166645000000004,0.21117362,0.131759055,0.054656555,0.17976355,-0.0,0.137803275,0.31720063,0.089274945,-0.0,-0.0,0.00130542,-0.0,-0.0,0.007585875,0.5201646200000001,0.14255479999999998,0.28333603,-0.0,0.31810562278444504,0.08374670263537631,0.11226607984708807,0.2715557486454295,0.1666654163129676,0.5035960546797815,0.1774191506337431,0.3014619108281502,0.07008726772464306,0.41441939257949745,0.13993220199285708,0.0678892996683756,0.03430696323505426,0.09995876189290244,0.02627702983535943,0.16542210457632997,0.49055780631463164,0.19723945549224342,0.0,0.004348272153566196,0.1467273850798191,0.0,0.010404480892232249,0.1937965980942337,0.5304958788979603,0.24726523577831117,0.6247938322924743,0.26153803623392835
RU-KDA,0.3357975904761905,0.1388480485714286,0.17110413999999996,0.30253103000000003,0.24838419476190468,0.4258062542857143,0.22167896571428566,0.27371026476190474,0.14936254428571433,0.3930873133333333,0.23378246142857145,0.11436586666666668,0.05340274857142857,0.05676126238095238,0.23139187476190473,0.09147838619047619,0.2056700261904762,0.08093317,0.3983696761904762,0.12791177095238096,0.10082584952380953,0.12811710952380956,0.14819546190476193,0.08835999952380953,0.3109854752380953,0.1983262138095238,0.24591244999999995,0.2557212495238095,0.3212679132835919,0.13944723584221125,0.1728731096564107,0.31371330694662086,0.24350140538456644,0.43195823421316587,0.21993118074368118,0.29505985182129985,0.1516006461640105,0.36981936758403483,0.22433217358476734,0.11968392548362715,0.06207905974481356,0.06265427730365467,0.1977551068148044,0.09868120980700174,0.22286945497359154,0.06243415651461602,0.34269002129449866,0.10164434105647183,0.10552363198363941,0.10803875048408121,0.10688544734163671,0.09187588671043695,0.339517391913563,0.20642831175320803,0.2677604985148753,0.21685784445216388
RU-KEM,0.39486620375,0.094385375,0.13917177375,0.27998004875000004,0.21297465625,0.4127442012500001,0.19283327375,0.2694843175,0.11741504000000001,0.48425722250000003,0.19679871125,0.09214093000000001,0.04153036,0.07480801625,0.00368561,0.07728030374999999,0.26725814000000003,0.18243215875000002,0.07839534875,0.0860868,-0.0,0.0317499075,-0.0,0.0680024075,0.512354075,0.0854051275,0.26678145999999997,0.1991639675,0.36546355303480643,0.09502478864618023,0.13283336587062852,0.3158239825659001,0.21719825592422912,0.43500653634456027,0.1941371668215295,0.2834664803594051,0.1163206635769389,0.4399210744191754,0.1770871413645854,0.09455554910415587,0.03927919363981197,0.06434352362889321,0.06809924320516737,0.12206906121406445,0.29816136845263497,0.11230141320641918,0.14292583485914764,0.065044320450861,0.038824655888498975,0.053400879611663184,0.025458312260532738,0.08754657598777747,0.376818630922998,0.15269863186690943,0.2938364530089544,0.17692846612710628
RU-KGD,0.343085475,0.08792152,0.1021349,0.29260790999999997,0.257633445,0.47487398000000003,0.111358205,0.33971613500000003,0.141652535,0.445774185,0.249294375,0.061425,0.029307175,0.00519239,-0.0,-0.0,0.25687388,0.0595713,0.249715565,-0.0,-0.0,-0.0,-0.0,0.025299735,0.511484545,0.04337284,0.1796373,-0.0,0.22872364808926296,0.05861434653406791,0.06808993366244928,0.3518500973274112,0.1717556284028865,0.5558059485403012,0.07423880245071059,0.3976613484069251,0.09443502415205351,0.29718278960563377,0.16619624948881695,0.04095000027369519,0.01953811551135597,0.0034615921614526515,0.07485841532523702,0.11496425643897672,0.4820711603609488,0.0397142012742259,0.16647704395769608,0.0,0.17082510520030655,0.0,0.0,0.16838130779531757,0.516985972021215,0.18882400036278713,0.5606078657946568,0.29326739046437117
RU-KGN,0.40617733333333333,0.060540079999999996,0.10470659666666667,0.31842615999999996,0.21850229333333335,0.44748418333333334,0.22773376666666667,0.2546746633333334,0.11367313,0.4596554666666666,0.19494784333333334,0.05506443,0.03962504,0.06366427333333334,0.08465597000000001,0.16454556,0.35180591,0.17532587666666666,0.33329158333333336,0.03648692333333333,0.04143575333333333,0.11703079,-0.0,0.17096395666666667,0.26132067666666664,0.16793647666666667,0.32326019333333333,0.0071960566666666665,0.41743770062643165,0.02018002684058183,0.06694792317164557,0.26383611387854194,0.1685044461471471,0.4848535402950927,0.18514406734855018,0.21067475454513918,0.08526215289759104,0.5157505423395998,0.12350421011553947,0.033735192920512726,0.013208346314329494,0.056591824397212866,0.028218656731567888,0.2226834986303173,0.43628581704468977,0.2768586085157938,0.11109719399364591,0.07721932936005414,0.04552004937264345,0.039010262790050196,0.0,0.15049483975897995,0.41044238920444814,0.2338762034810916,0.44074897766324095,0.15679978835327713
RU-KHA,0.4134879055555556,0.022101802222222224,0.06980570888888889,0.1517612911111111,0.13922558555555556,0.47892600444444433,0.13319857888888886,0.13956059555555556,0.04654156666666667,0.5903039955555556,0.13391227222222224,0.022783876666666668,0.0,0.04170451,-0.0,0.13492558333333332,0.3073431933333334,0.3630951511111112,0.10783800888888889,0.17538472333333335,0.04085775666666666,0.07035996333333333,0.005834186666666667,0.08988839222222222,0.37706463888888886,0.2235697933333333,0.32844560222222224,0.21336441777777776,0.40782010541974373,0.038018101530856156,0.08516633085422708,0.16540364205426886,0.15607414308390355,0.4686606765868975,0.1441142812860767,0.1516979609854494,0.06129518343033861,0.5731082267898381,0.15252169412693903,0.03649139838909227,0.0056011317104685135,0.038892799648138236,0.09804651775668385,0.12143302511266486,0.27660887456431954,0.3267856372320072,0.2698932691726204,0.22296920041427556,0.08258756163637322,0.137510857398597,0.07894337734592816,0.10507203639708187,0.33935817514507255,0.20121281410502354,0.29560104189648545,0.2134106258556226
RU-KHM,0.33647073333333327,0.07246804666666666,0.120088725,0.32703084583333336,0.21486683166666665,0.4667922075,0.2116377275,0.2555276533333333,0.08922582250000001,0.39206702833333335,0.22780716916666666,0.062984325,0.032858215,0.016788866666666666,0.07601370166666667,0.1315519516666667,0.3051589133333333,0.13414098916666667,0.2627289191666667,0.05900839666666666,0.10227260333333332,0.1122590075,0.04094955916666666,0.07740224,0.293590925,0.2436259891666667,0.3283204416666667,0.1864049716666667,0.34216139363004183,0.07921267588526748,0.12018681185041907,0.3288018257627612,0.21200632947076145,0.46598294471955976,0.19881308006112489,0.27326328045954557,0.0887865064107415,0.40976160912795917,0.21288012867956926,0.06204654300098345,0.032526079320557295,0.024427374393866576,0.1279837422345577,0.13390425894028585,0.3212650545223546,0.12008130910738445,0.34139606945908624,0.13928806573846267,0.08425774158669963,0.13681875496446594,0.08054073004003134,0.11080826839404344,0.2151432411466421,0.17637234997017,0.32511955498890904,0.19281219449872603
RU-KIR,0.23994637,0.12820305666666668,0.15386252333333333,0.3930145699999999,0.19633318333333336,0.4821610566666667,0.18421532333333335,0.3287786366666667,0.13034476333333334,0.26157432,0.17884140666666667,0.11161504,0.07277306,0.03689701,0.4334163366666666,0.17487478666666667,0.29546560666666666,-0.0,0.4301687533333333,0.20534865333333333,0.23402042666666667,0.18585504,0.29850031,0.16695839666666668,0.21298710333333334,0.36037078333333333,0.42258546666666663,0.66235958,0.2998832387497792,0.06270563275197885,0.0961939632508278,0.33308042904873525,0.15354127267477807,0.48894485569213675,0.16693745044551,0.28093866505118337,0.08569284752301821,0.3954068864489997,0.12274930094990649,0.0712102544942962,0.038709332560791974,0.0465649668401333,0.16436980585278158,0.2254406102112048,0.42593526381908337,0.1259961546857124,0.14396000956057148,0.0684495507629475,0.1416234479237354,0.061970289191968675,0.09950010422378226,0.1421417535250612,0.37434306852868676,0.33461253061863894,0.45126758370858,0.3635838425108777
RU-KK,0.12704302666666667,0.047998273333333334,0.06426070666666667,0.39895506333333336,0.10224548666666666,0.6312156366666667,0.08541332,0.4018864666666666,0.051883860000000004,0.14766463333333332,0.10469465666666666,0.04308861333333333,0.020558493333333334,-0.0,0.19558187666666668,0.25922362666666665,0.6568210733333334,-0.0,0.44443209,0.08332933,0.3038245466666667,0.15606919,0.025244443333333335,0.25016706,0.40273095999999997,0.2773141,0.8366689066666666,0.53973852,0.21065771562466487,0.035998705673428354,0.04819553037215612,0.29921629885975676,0.07668411558538277,0.5922346467362367,0.06405998880941242,0.3014148484677973,0.03891289513183825,0.2980173191728509,0.07852099211868634,0.03231645989796479,0.015418869894614615,0.0,0.14668640769193675,0.2163509739568661,0.5645017112833958,0.2324261085440368,0.3333240685029755,0.2765577430074522,0.2278684074642554,0.11705189233410912,0.018933332869778073,0.18762529711257905,0.5524542539384295,0.20798557531623676,0.7549077084280708,0.6753155001616983
RU-KL,0.0,0.0,0.0,0.40561919,0.0,0.70874357,0.0,0.56474895,0.11922355,0.0,0.0,0.0,0.0,0.11797384,0.16511924,0.23819944,0.83733066,-0.0,-0.0,-0.0,0.56213838,-0.0,-0.0,0.4374913,0.666291,0.50920449,1.20647175,0.43914661,0.19421468084919666,0.0,0.0,0.3472784682830219,0.09513832505681943,0.5971124630309305,0.10597870474665096,0.4242601272222274,0.05961177326926333,0.28813319629640144,0.09513832505681943,0.0,0.0,0.08199983996483586,0.08255962231736362,0.1781193630489329,0.7059427216510163,0.1347137901249556,0.0,0.0,0.2810691877849335,0.0,0.0,0.21874565036494814,0.5735305546326968,0.2747308350354982,0.8548522433410992,0.21957330463132035
RU-KLU,0.1865867925,0.008874615833333334,0.010729960833333335,0.2538009241666666,0.08693889249999999,0.6234404416666667,0.07932540583333333,0.35739541166666666,0.012115735833333334,0.3135934791666667,0.08147586333333333,0.0060578675,0.0,0.0472858225,0.09504513999999999,0.14979376666666666,0.5569988066666666,0.1876702016666667,0.202321415,0.1921301375,0.33074660166666664,0.09000082749999999,0.01581149,0.24086773333333333,0.5493017625,0.39456133083333333,0.7945696875,0.29812360583333336,0.2169262944744658,0.006655962058382855,0.008047470499527339,0.26132969087203817,0.07396175469940279,0.6034578529327671,0.07812915013902477,0.3452163937671015,0.009086801862631652,0.34967591778204227,0.06865027038448447,0.004543400931315826,0.0,0.05239094557211151,0.08209592025551446,0.17492025065499764,0.5856483925237238,0.1922526156798323,0.1517410612495889,0.1440976030303732,0.28672474475299037,0.06750062062932169,0.011858617707956513,0.2045493968221956,0.5422307593314529,0.38947363732669443,0.7566241630297109,0.2559268052924396
RU-KO,0.3536892300909091,0.11992017672727272,0.13837829109090913,0.2708144369090909,0.20504768536363638,0.4374950302727273,0.19283765145454546,0.25004889636363636,0.11846788436363637,0.4516327980909091,0.20345927009090914,0.0856856760909091,0.03246777663636364,0.0700776620909091,0.055743137272727276,0.07960159792127273,0.2519179481818182,0.17538049272727274,0.2669391075454545,0.12454397773636362,0.06539707727272727,0.12941916909090911,0.0059099827272727275,0.05195435545454546,0.2655956460181818,0.17187645990909092,0.35129743545454545,0.2956052418181818,0.3550156410823591,0.12492862473656213,0.14492924209994193,0.27462653959712885,0.21167794638786838,0.43268976736087567,0.2005725082187206,0.2509640617224175,0.12306974115161712,0.448974253426849,0.20951541642465416,0.0900759106875098,0.03670430659089551,0.07229806605514351,0.05332883110920379,0.07531604596823961,0.23092478516413809,0.16076545132320683,0.2831036943072961,0.11416531287817898,0.05994732069685305,0.13995942044895868,0.005417484037123394,0.047624826126104476,0.2434626752376694,0.170903460023034,0.3220226509117695,0.2709714713446307
RU-KOS,0.251411346,0.055332482,0.05909964400000001,0.39547531399999997,0.14809788200000001,0.53514586,0.17103655999999998,0.321295358,0.051389594000000004,0.30449416,0.14164874200000002,0.032622722,0.0,0.030471966,0.107933172,0.20353148199999999,0.5608503380000001,0.124020934,-0.0,-0.0,0.23401262000000003,0.004947312000000001,0.022402633999999998,0.18952791800000002,0.46466718600000007,0.32942962200000003,0.7051080200000001,0.45173523800000004,0.30379134533966157,0.049850522811982996,0.07114601591037172,0.36004863189061775,0.1771831581050211,0.5050654701776208,0.16870808415987107,0.3083457975573025,0.061827728478184664,0.38897330885197445,0.17227930729665303,0.039194895760134865,0.01768193894824604,0.04002716092111835,0.06745823213435037,0.14802967572646394,0.4508655477927529,0.16467511262099432,0.11432915931158653,0.11624887318389646,0.14625788741777962,0.07739094319824977,0.014001645765930878,0.11845494783172342,0.43627483791523164,0.22230693798360615,0.4886918313736611,0.2823345234417748
RU-KR,0.26818857692307696,0.016374620769230772,0.04337591923076923,0.23784704230769235,0.16659182923076926,0.54389385,0.08788104538461537,0.30177234999999997,0.026667735384615383,0.47467483846153846,0.1578296576923077,0.00874929,0.0,0.03824896153846154,0.05443284692307692,0.11108457307692307,0.4135791407692308,0.15402571692307693,0.13858160076923076,0.13359510692307694,0.17106966846153845,0.07687699076923077,0.018992573076923078,0.18220790307692308,0.3937647815384615,0.2215485769230769,0.5325248076923077,0.26372622384615385,0.2555162670884966,0.0133043796718392,0.03524293406780293,0.22367339604736539,0.1520829194282624,0.5538787106035985,0.0714033493686155,0.29550220670280586,0.02166753491070269,0.47710012163685417,0.14758819262562392,0.007108797571434427,0.0,0.04083632042446493,0.05228755989463877,0.11693814134700801,0.4216624045884861,0.14901498282222161,0.15717111605368103,0.134947848744623,0.1722845653375818,0.07672675931995633,0.01543146549673871,0.19143899940929315,0.36762127480322443,0.22110465524364922,0.5366034254755158,0.2643268621807949
RU-KRS,0.3853765025,0.0799150775,0.17812223,0.33071178749999997,0.260218625,0.42817211,0.2626473575,0.28257083,0.1038814375,0.4710084325,0.18233389499999997,0.05806965,0.0097511025,0.058530042500000004,-0.0,0.18974242000000002,0.3402393125,0.15975621750000002,0.1447572625,0.01030126,0.0104598225,0.0255605775,-0.0,0.0653698625,0.4126076825,0.13858291,0.34961103250000003,-0.0,0.2644969520930838,0.039957539146389526,0.0890611134992822,0.3034186060973296,0.13010931204111392,0.5379781219579157,0.1313236777433596,0.3654972379043814,0.05194071917586919,0.4026289415837249,0.09116694741591172,0.029034825697763306,0.004875550961886932,0.08725041205651624,0.025068775475003142,0.1894681932300327,0.5658643066886415,0.1300275075836752,0.07237863161871769,0.005150629459703924,0.13747748314342875,0.012780288746401797,0.0,0.16464239013458648,0.5050305577763452,0.20430474972096482,0.5744368431900773,0.13146009980502604
RU-KYA,0.3828851299999999,0.03693882904761905,0.04445330333333333,0.17696852904761903,0.08966536380952381,0.4845071942857142,0.08948859761904762,0.13707200095238095,0.04771686619047619,0.5958017652380954,0.061533745714285715,0.03145690523809524,0.01252414619047619,0.028414386666666666,0.1295511457142857,0.2335775933333334,0.4807744628571428,0.3992775728571428,0.2057308214285714,0.1608141542857143,0.08918708761904763,0.08912395666666667,0.11193929047619047,0.11461051809523808,0.5274502628571428,0.24453465333333332,0.46050655476190466,0.4842446547619047,0.40335594676752773,0.05169263540213252,0.057093075650652046,0.19265959455900988,0.11678941579522166,0.4693778243571457,0.11471164789111504,0.1431271978359524,0.04633707844530962,0.5794303254443706,0.0774508840136124,0.03322864036661301,0.009069208991914027,0.03827709029273033,0.09381289874204572,0.21550396777248912,0.43461766413696334,0.3719287675596536,0.16709560744098353,0.15265544259241667,0.06870469889393942,0.07605897102623987,0.0810594863134546,0.09337188013272663,0.4713521370353392,0.21757927370463165,0.4194099407841759,0.393542168351263
RU-LEN,0.42666782416666665,0.02115302083333333,0.0235051275,0.16415580249999998,0.08384296000000001,0.46523144916666664,0.12614590583333338,0.08140605249999999,0.008997666666666666,0.6543125649999999,0.07768879166666666,0.013137801666666666,0.0,0.032421310833333335,-0.0,0.24272118916666666,0.4467123775,0.44025243833333333,-0.0,0.08690639916666665,-0.0,0.00894281,-0.0,0.016727753333333335,0.5973223633333333,0.2670943841666667,0.3386599508333333,0.17030842166666668,0.38997979697940816,0.024792802794884442,0.04035202084838984,0.18582746198013947,0.10459578363936095,0.4868162886733461,0.12703229263524524,0.13143778920066856,0.021190168691436223,0.5972127969678269,0.11520415152824028,0.013271572910288363,0.0,0.02584382663478549,0.018613493590312585,0.1977316215520973,0.4107761904265906,0.34658197045182826,0.06913954024718198,0.07674759496234417,0.033814852528893435,0.03902265815992474,0.008710403732986151,0.026635175273217765,0.5331583367428595,0.2431170812329113,0.3157219551316502,0.16119455167888644
RU-LIP,0.184117365,0.0,0.0,0.32755354999999997,0.05689277,0.6275834600000001,0.03589534,0.406844465,0.0,0.329694235,0.0,0.0,0.0,0.02792649,0.071744225,0.181440085,0.61259212,0.020922245,-0.0,-0.0,0.25129262,0.070233615,-0.0,0.18238277,0.32413596,0.31398669,0.63737093,0.254037605,0.22908254118888657,0.06480959081967583,0.07933836753606154,0.31719733007778605,0.15779512061824774,0.5420457411819183,0.1391987270599864,0.3710434629592581,0.06600588709863536,0.3111560125782998,0.13872695378048946,0.06439562471314036,0.015953739332064856,0.05213611791272636,0.058019892872937684,0.11218333113975594,0.44335293400943987,0.06375888562843947,0.19431414518801843,0.04406249045977188,0.19369682227655993,0.08311319903313233,0.0,0.13590946727516232,0.35883748837585,0.18979107006577275,0.518449093319029,0.1686571083343968
RU-MAG,0.439422548,0.0273891,0.038754847999999995,0.060949220000000005,0.058949242,0.40613763599999997,0.048502044,0.053914978,0.0273891,0.7253386079999999,0.058780516000000005,0.016489882,0.013067922000000001,0.019044167999999993,0.10893855599999999,0.147252288,0.333044136,0.654392832,0.303291368,0.34543768799999996,0.11372353399999999,0.114739234,0.06744681,-0.0,0.696140632,0.125159778,0.60446228,0.790630904,0.4394225463139339,0.027389100590632254,0.03875484736063643,0.06094921976245726,0.05894924196435288,0.4061376350132696,0.04850204387799017,0.053914977488888106,0.027389100590632254,0.725338605171145,0.05878051664956726,0.016489881664076743,0.013067922039445509,0.019044169441273164,0.10893855647688166,0.14725229166182394,0.3330441372544254,0.6543928290224563,0.30329136835877063,0.3454376903118701,0.11372353412940488,0.1147392332049119,0.06744681014354265,0.0,0.6961406326310924,0.12515977749721455,0.6044622821230061,0.790630904469731
RU-ME,0.13568411333333333,0.016996646666666667,0.04771561666666666,0.35628174,0.08498322666666668,0.6401759233333334,0.08919716333333333,0.4831476933333334,0.03399329,0.15900958666666667,0.04771561666666666,0.0,0.0,0.07603952000000001,0.059559846666666666,0.17160554333333333,0.6445463666666666,0.10589773666666667,-0.0,0.16905641666666668,0.3405057333333334,0.04856431333333333,-0.0,0.25602364666666666,0.48976502000000005,0.2558499033333333,0.9163057133333333,0.3019835366666667,0.13568411286167778,0.01699664563075556,0.0477156167699705,0.35628173860157336,0.0849832281537778,0.6401759201445064,0.08919716424189282,0.4831476902971255,0.03399329126151112,0.15900958733723305,0.0477156167699705,0.0,0.0,0.07603951982895645,0.05955984524142346,0.17160554167234313,0.6445463653429108,0.10589773628350686,0.0,0.1690564179949057,0.34050573400388556,0.04856431197972719,0.0,0.2560236479044082,0.48976501792744626,0.2558499046931917,0.9163057136395358,0.30198353616102125
RU-MO,0.38329334000000004,0.10157773,0.11716437,0.28607594999999997,0.18684883,0.42865265500000005,0.273202795,0.13618567,0.10201468,0.52089936,0.146223925,0.087073245,0.05785021,0.03186416,-0.0,0.29627127000000003,0.32629145,0.180497645,0.205362965,-0.0,-0.0,0.05147977,-0.0,-0.0,0.492522735,0.41543288500000003,0.254068235,-0.0,0.21714485780502954,0.05378909620950937,0.08013320568462375,0.314035025447902,0.12938336193572467,0.56242424564119,0.1523722351524514,0.3723812205144498,0.07224775226044602,0.28157371320382263,0.10585802609468453,0.04179411992402372,0.022167315177967578,0.07351072215876171,0.01714767013077666,0.1942134067407819,0.5501024872061457,0.07038654115293712,0.10139156876896627,0.00814429373172937,0.22816957271384145,0.02657311534368104,0.0,0.17821205813239413,0.5152586076357403,0.28198096501708914,0.6429682249998238,0.18025321170624656
RU-MOS,0.24502337250000006,0.0,0.0,0.11627395999999998,0.04071068125,0.632005695625,0.007472846875,0.16538930125,0.0,0.496513055,0.0485326178125,0.0,0.0,0.024150413125,0.017066012187499997,0.21567288218749997,0.5579285184374999,0.3516877325,0.038553132812499995,0.0972012740625,0.164750695625,0.036356998437499996,0.03156906875,0.11360886781250001,0.7128125193749999,0.39186240875,0.5610028565625002,0.26534068343749995,0.2383443552182964,0.0,0.0,0.12070643740362949,0.03256854524715048,0.633365595018984,0.005978277455155742,0.17245565243596503,0.0,0.48928750753365163,0.04603599127787257,0.0,0.0,0.024230270922658843,0.018846696765712233,0.22015335530495575,0.5828583483410862,0.359102654480097,0.030842506171144694,0.08481895001388844,0.1698305338287366,0.029085598704754793,0.025255254879548685,0.11876136651416577,0.7568308647427314,0.3942038739759274,0.585382126896428,0.2759323458740476
RU-MOW,0.325872905,0.0387245475,0.0450214375,0.1813888375,0.20390202000000002,0.5431002875,0.09751104999999999,0.2321528025,0.0489050025,0.5378249675,0.1267079975,0.0132779975,0.0,0.0069898675,1.6368233349999999,0.076403905,0.1344725,0.1438240775,2.53808449,2.173026745,0.813017435,1.5110469674999998,1.7134261924999998,1.13898367,0.069694425,0.2883634975,0.2775618325,2.8183002275,0.3258729054987539,0.03872454825361472,0.04502143719730485,0.18138883641447912,0.20390201895173982,0.5431002874037427,0.09751104905103541,0.23215280364766533,0.04890500238209692,0.5378249648258677,0.12670799767039037,0.013277997068202901,0.0,0.006989867611973263,1.6368233346437315,0.07640390544640015,0.13447249711672274,0.14382407747760712,2.5380844901692536,2.1730267452605423,0.8130174348011484,1.5110469710431076,1.7134261929931387,1.1389836681517203,0.06969442538831533,0.28836349920740195,0.277561833323138,2.818300226345283
RU-MUR,0.37399011000000004,0.08092189999999999,0.09351060750000001,0.282059875,0.26587536500000003,0.4296014625,0.2527038875,0.2559374175,0.1066811575,0.5116242775,0.2491597325,0.0639929075,0.0261084925,0.0493663775,0.1035752525,0.0585451625,0.1477088725,0.07773122,0.29674803250000004,0.0610652275,-0.0,0.1307564525,0.03245912,0.0412973925,0.216612435,0.10038275,0.1399621775,-0.0,0.3795930345467095,0.08343936039613686,0.11012553173556221,0.2906697595592664,0.2704069238854523,0.42454634769119687,0.25551108161694075,0.24629102182963414,0.12063247869744793,0.5049389542533004,0.2626745892751483,0.06356020720722998,0.017405662070567682,0.049263041484904437,0.06905016821690148,0.05146729499886427,0.15059248872599465,0.082602546319704,0.31007352525545023,0.0535022672305779,0.0,0.11742301344816315,0.021639413921289884,0.027531595257621586,0.2672423106345951,0.08056025243036663,0.15389335319137398,0.0
RU-NEN,0.40800096,0.07432569,0.16811428,0.32772942,0.25286891,0.42701513,0.27699945,0.29209604,0.13164892,0.47643997,0.19920355,0.0,0.0,0.13918057,-0.0,0.19257042,0.50915205,0.16399796,-0.0,-0.0,-0.0,-0.0,-0.0,-0.0,0.59676571,0.07785149,0.49976005,-0.0,0.4080009563751858,0.07432569353531507,0.16811427654784308,0.3277294169468573,0.25286890511809346,0.42701512803030556,0.2769994494860753,0.2920960394117794,0.13164892007651435,0.4764399681330219,0.1992035511129027,0.0,0.0,0.1391805660583703,0.0,0.19257041919043058,0.5091520501580264,0.16399796304622832,0.0,0.0,0.0,0.0,0.0,0.0,0.5967657136968025,0.07785148545941165,0.4997600468384455,0.0
RU-NGR,0.28430174,0.08443870249999999,0.10314258,0.2433610325,0.1784804775,0.5249902550000001,0.1300184625,0.2778206475,0.09091684750000001,0.3864208175,0.202449145,0.05570359750000001,0.01837158,0.074070375,0.118880255,0.0629355975,0.31022191,0.22943474000000003,0.4140797375,0.2693703675,0.19129166,0.1874308475,0.0458317525,0.1757770375,0.4303607675,0.23775998999999998,0.5347761600000001,0.37585266,0.2939644433089059,0.04946046935339414,0.06730918338750445,0.20598157003888065,0.13853461732412578,0.5329271043918393,0.07875157778280378,0.2444813423662715,0.05284535826401835,0.4778735620514194,0.16110917798100904,0.03978143335253923,0.01387813073697439,0.0502771233237159,0.06579845896482436,0.09745233391630652,0.3921651788139653,0.2977850168657996,0.219620080914803,0.12108745914900858,0.1326701149297294,0.10600028398378973,0.020428746068194125,0.10756294155550476,0.5729791925379495,0.2400824093402551,0.4589323819852022,0.28368965863018286
RU-NIZ,0.33919387363636366,0.08478874727272727,0.12202856454545455,0.28143315454545453,0.17558202818181817,0.46714238181818185,0.17807479818181818,0.23262146909090908,0.08708567272727273,0.4818644009090909,0.15752014454545454,0.06316353818181818,0.03694440454545455,0.05276089,0.16525018000000002,0.18648587545454545,0.41113856454545467,0.19834000999999998,0.22832373090909092,0.12041929363636364,0.08169511818181818,0.08637576363636362,0.12268150909090911,0.09592173636363638,0.5458660872727272,0.24726581727272726,0.3277136409090909,0.31200824727272725,0.35593295027720334,0.05829226337548376,0.09957660551803206,0.26093107496538315,0.1408662068939621,0.48326343450228476,0.17624623583389834,0.20251481821260847,0.07288448903329665,0.5169110306027153,0.1082951002738377,0.04688813317788507,0.025399277756983328,0.05471861908446607,0.11360949845392843,0.25789556937434815,0.47585114912804194,0.24105333165960657,0.1569725647625883,0.08278826469362911,0.06870613487804024,0.05938333747155981,0.08434353736602875,0.11124265434988931,0.5795130825351373,0.3254875165215249,0.36056291763785214,0.23095973122883692
RU-NVS,0.35091836875,0.0840720525,0.10115885125,0.31434893,0.176033905,0.47928368,0.18518988874999998,0.28424089750000003,0.0962794525,0.40751835124999997,0.13442451375,0.04723202,0.030174716249999997,0.06465351,0.23976830375000002,0.17963999125000002,0.39342333500000004,0.14313009875,0.1977692675,0.1433033825,0.16486841500000002,0.08369659625,0.2109169625,0.17590676125,0.34950105749999993,0.24199644875,0.43054333499999997,0.45864667875,0.38559451580755016,0.05593585071560798,0.09243348819217158,0.33218592735713776,0.17335828879951068,0.47089282886756495,0.21225896453038695,0.30484238168988526,0.0831101237400829,0.40849199244158146,0.1279170136854638,0.035296621852044914,0.023186112921088773,0.06594798460392165,0.1278764291797809,0.19755629705569214,0.4045779190484971,0.09979454907780648,0.1191577493081368,0.07642847037241586,0.12636353796009084,0.052166242953188606,0.11795876725970458,0.19770836759160407,0.27697179913072234,0.22138810373722123,0.4183025712427196,0.2460600470322351
RU-OMS,0.2970432425,0.05182174,0.0890726925,0.291037985,0.13311984999999998,0.5159822575,0.1107454325,0.2967330375,0.10356868999999999,0.38160927499999997,0.09905241249999999,0.0416872425,0.0304931225,0.027806980000000002,0.436716925,0.21615239249999998,0.51238282,0.1966911675,0.4574466375,0.36858026499999996,0.23016976,0.22788858,0.3809712125,0.28827726,0.35196242,0.22244516,0.62879391,0.94801135,0.2459384986159873,0.042749444002510885,0.08826709867437643,0.3508214416374915,0.13463802395417002,0.5363986626224905,0.12209911900874038,0.35519606714878343,0.08546149279196999,0.30622325826525226,0.10167462325743906,0.039858059522526156,0.01524656136687376,0.038342755568553544,0.2735652895634216,0.2182774333835004,0.5682383439155808,0.13025216546105806,0.22872331925844339,0.18429013212607964,0.2484607447550816,0.12210200444890108,0.19048560660796265,0.27703843033350717,0.39282457813483507,0.24578102294439577,0.708276556682937,0.7208138015267038
RU-ORE,0.39971662999999996,0.1235982925,0.1522722625,0.3127255125,0.24649322250000003,0.39612261,0.25779747750000004,0.20362434750000002,0.14025666,0.45949335,0.23503722,0.10540328,0.02471717,0.04488095,0.0615478775,0.17170713,0.20817815,0.1152046925,0.3157109225,0.07188462000000001,-0.0,0.078313075,-0.0,-0.0,0.3792271175,0.23130970750000002,0.129036065,-0.0,0.3790256313667687,0.09398264698981548,0.1583295002303285,0.3168321631049366,0.26461113270540315,0.41648725946368914,0.2536696927351746,0.26620223272653815,0.14673031784329943,0.46104147786595684,0.23784828889500303,0.0926037206497858,0.02024902512993458,0.0725109194292541,0.024619150705961074,0.12083481467009945,0.2750778870711116,0.08732087495067284,0.1262843681878298,0.02875384838733679,0.006558667274196429,0.03388068566393353,0.0,0.007550315028343489,0.4430755500155061,0.13127867540114452,0.2083312314836015,0.0
RU-ORL,0.23626739,0.05892863,0.10071320666666667,0.3202431466666667,0.17902247000000002,0.5314439366666667,0.15470754,0.4015851733333333,0.09533340333333333,0.31955321333333336,0.13522995999999998,0.07260341,0.029842783333333334,0.09778094666666666,0.042762306666666666,0.11459037666666667,0.42152703333333336,-0.0,0.21393394333333335,0.026685876666666667,0.1925644866666667,0.09144136666666668,-0.0,0.17324558666666667,0.3032903966666667,0.21157642333333335,0.45521088000000004,0.14019694333333335,0.14732325401214347,0.025255126589107935,0.04316280267459327,0.2862387536842231,0.07672391629343843,0.6280250054888922,0.06630323210301627,0.4173548842842421,0.04085717261726973,0.24420059370347882,0.05795569753142426,0.03111574650868597,0.012789763920198502,0.07640392659265181,0.05025683303238324,0.18220310457185798,0.6536665719864069,0.09695609507117804,0.09168597541663363,0.011436803576144043,0.30389543387112283,0.039189157020309166,0.0,0.22957321393904453,0.5845324655354018,0.32772548841302157,0.7690420634787013,0.2716400262910785
RU-PER,0.2239022642857143,0.027903832857142857,0.03313604428571428,0.32443827999999997,0.08465349,0.5904513057142857,0.06752620285714286,0.3407702,0.029913147142857144,0.3171778,0.04665039142857143,0.01931341285714286,0.012158411428571428,0.027769564285714286,0.30929711285714284,0.2363610014285714,0.5852202485714286,0.13710965428571428,0.37270360571428574,0.36616477428571426,0.2931388,0.18883845571428573,0.21915939857142858,0.35583563285714287,0.20951794428571427,0.3831778557142857,0.7930902928571429,0.7854984771428571,0.24222971889201414,0.04490582513598073,0.05287043691818928,0.33130042775051516,0.0993541769620724,0.5707414683246634,0.08347821734386943,0.34413153443077743,0.032835879290120294,0.33817380322706353,0.06864753315856602,0.026480164359040666,0.014422484697919125,0.04640336336066476,0.14240702255534973,0.21128276095408105,0.5864277191021614,0.15045656955687173,0.12423453523137076,0.17629025300317763,0.22494765197886782,0.07004356115253664,0.07305313279084226,0.2706332282502522,0.373610762414041,0.3234778553906206,0.7200668586913678,0.5383169484436343
RU-PNZ,0.4023120033333334,0.07163569666666667,0.07676340666666666,0.19839242333333332,0.10559523666666666,0.4692221733333333,0.08796459666666667,0.22271038666666665,0.0615871,0.5442832733333334,0.17276239333333332,0.050982080000000006,0.03522910333333334,0.053298700000000004,0.21062400666666667,0.08121060666666667,0.4288610133333333,0.35990761666666665,0.4467296633333333,0.33984066333333335,-0.0,0.16133407666666666,0.13261052333333334,0.16576051666666666,0.4640866833333333,0.09561574,0.38177717333333333,0.31125733,0.2760902181467541,0.0675783789337984,0.09367798109877638,0.3004923511569809,0.12373753802916258,0.5222984116165722,0.11470723587408638,0.34506649724042676,0.08700632220445688,0.35081547827401177,0.12910310729505461,0.0600966402110281,0.04156629316775294,0.08007596985587953,0.1372667915393549,0.1639956291268121,0.5033426731677892,0.15424612103076804,0.19145556997784374,0.1456459981859876,0.14361296168562418,0.06914317616446272,0.056833080981608865,0.1906345577268194,0.5350635844470945,0.23703022749684674,0.5402235214264259,0.3082941498515805
RU-PRI,0.12170284166666667,0.049246015000000004,0.07190763,0.3993725733333333,0.09695410666666666,0.6188891483333333,0.08296868,0.4573610050000001,0.045100604999999995,0.13382613,0.09654874333333334,0.040971575,0.0,0.020964029999999998,0.21052310333333335,0.2007791683333333,0.6126179966666666,0.07514524166666667,0.3258903783333333,0.31612370500000003,0.42097026666666665,0.13840651333333334,0.047770998333333335,0.3826314966666666,0.21267512999999996,0.39630357,1.0071367266666666,0.7561173933333333,0.2125855793633309,0.03983478723266263,0.0866541051885248,0.37035328271591544,0.1340376522965602,0.5734773031544876,0.10196792048422633,0.40857084065883953,0.04664641544813098,0.26697159039925383,0.09922252981735734,0.040646133368977135,0.0,0.0318693870585297,0.11719589455859758,0.17340308999897422,0.5063677025197187,0.07604748999058959,0.23676521066821163,0.18201698809159148,0.2770786489570392,0.1240291396325534,0.027025955067031458,0.25066463154896074,0.2057736695168179,0.29356043124132253,0.7233278699304329,0.4704943856270089
RU-PSK,0.36577542838461535,0.021092772307692305,0.025590957692307688,0.21373795292307696,0.1490148746923077,0.48939012953846145,0.11449846869230769,0.21467654092307692,0.03821157023076923,0.574759774,0.1203201526923077,0.025409553076923077,0.0,0.02715899153846154,0.1268196653846154,0.14160248548115384,0.3507443883846154,0.28108663530769235,0.23580738538461538,0.12357016076923076,0.13320695076923078,0.13426135076923076,0.08541283999999999,0.10422321076923077,0.5252021423846153,0.19114702786153842,0.30015842630769235,0.15517700615384616,0.3673039090095411,0.01828040238495276,0.028882169503131036,0.22480694997639142,0.1578306515724814,0.4873365946976654,0.12870562268831878,0.20334025822861876,0.039820033875940124,0.5804494442649294,0.12098382610052011,0.026366286700388212,0.0,0.023537792411829565,0.10991037673855321,0.1634798954364815,0.35209441811668546,0.27155591327402606,0.20436640103435103,0.10709413952838952,0.11544602404928805,0.11635983777090543,0.07402446136175879,0.09032678308504441,0.5485980420986463,0.20578307969129875,0.2825019301188662,0.13448673818536602
RU-ROS,0.34305492875,0.12951652625,0.1551270975,0.30575450375,0.23245633124999998,0.42572702625000003,0.212119765,0.29839244249999997,0.14739047625,0.4582315175,0.1893220025,0.11378651,0.04970653875,0.0787899325,0.24364161874999998,0.09774855375000001,0.2150284375,0.12261078875,0.53545875625,0.34658002374999997,0.03161588125,0.21666684,0.17554255,0.1409958425,0.26004015875000003,0.1223477075,0.1095526325,0.34091076375,0.2997887883602069,0.08480802820292677,0.11803806965039279,0.30326780351129917,0.18767764837222914,0.49033636059821234,0.17281539776363347,0.333608677465438,0.11189161199910826,0.4039486147782262,0.1485380250908259,0.06817410118393936,0.038196642366170895,0.06899320571232019,0.12882684590657598,0.13505904053725193,0.3892396825459322,0.1202995882856447,0.2724459526433596,0.15116618800958156,0.11295345504025699,0.10299557383995715,0.07919129899621773,0.1605180620327462,0.35637926847321,0.1712025783922639,0.3933896406863353,0.25471633366620056
RU-RYA,0.3011132134285714,0.027782865714285714,0.044272193185714286,0.18092273571428572,0.08780956985714286,0.5467925911428572,0.07767335128571429,0.20624695142857144,0.028584507142857145,0.5387726201428571,0.10008533242857143,0.023240392857142855,0.017199934285714286,0.014434107230285714,0.18159033,0.1746398967857143,0.49504599557142853,0.29094135842857144,0.2304025,0.15053863999999997,0.14154116142857143,0.09956860142857142,0.14744197,0.11419709714285715,0.6105166567142856,0.2481384542857143,0.40467811942857146,0.3127725928571428,0.32357353336181477,0.024253877685774392,0.045585085937214234,0.2083680381794984,0.09257877808582926,0.530563882847121,0.09313729957643735,0.22523829432170323,0.020697898755591165,0.5647219654671679,0.09393171107489422,0.024420565918436492,0.020896965317732268,0.036673034773244344,0.1059276932791717,0.19462001159012818,0.5279553272907417,0.27286417444446603,0.13440145823015995,0.08781420649121173,0.08256567745873349,0.058081683937109316,0.0860078157286999,0.11525230515133103,0.5888310006532983,0.23032546597067194,0.3859971512729402,0.20173117750273195
RU-SA,0.3292774959090909,0.017763165,0.02939323863636363,0.15043865545454543,0.07727856636363635,0.46296435818181825,0.07277993909090909,0.13939466090909092,0.026504349545454543,0.6372465272727275,0.058621488636363635,0.010901472727272727,0.007574105,0.04624926136363636,0.09799700590909093,0.19625032727272726,0.48765733818181806,0.4457229018181819,0.21457056000000002,0.1677601095454545,0.12831836590909093,0.09571304590909091,0.09875838363636363,0.08392711318181818,0.8805938304545454,0.15390658954545453,0.4901343259090909,0.32981426636363637,0.30245061219017805,0.01503037028326535,0.024871201459580647,0.17143272210438798,0.06538955585818583,0.4922334508394895,0.06158302545298256,0.1677049167113536,0.022426757601338984,0.59140096325658,0.04960279785416235,0.009224323113800843,0.006408858307206656,0.044335938379928226,0.093837082744403,0.21236689191762004,0.5357984299329525,0.4073151556443324,0.18155970458438195,0.15187689627688214,0.14640424256171516,0.08098796201777135,0.08356478609398366,0.11501424995775827,0.8844434664796882,0.16711798883117224,0.5560375510762191,0.3587739993464148
RU-SAK,0.2371874725,0.0,0.0741349975,0.2491063175,0.0,0.428405225,0.05097088,0.215342785,0.05097088,0.429097255,0.0,0.0,0.0,0.12693302750000002,0.2501974475,0.222635735,0.3509719875,0.1876476125,0.2029882,0.2066981475,0.417852335,0.23629345000000002,0.232742475,0.3062323225,0.2033860225,0.53427171,0.74486051,0.438701455,0.32672591653420663,0.019093224041316414,0.08534954436515502,0.20036930018330748,0.035913704168009715,0.4616100524439048,0.054917135888170585,0.21129122328926636,0.05149404221850478,0.48584034595948544,0.03132310314745305,0.015491626081042435,0.009774127825733265,0.10442368281139863,0.15397078971092076,0.16126878390296812,0.3328713729268563,0.31836413266604213,0.28483607176897136,0.32712168520367757,0.25143227279985597,0.2044608367084838,0.11637123767760511,0.2535605155169798,0.40193104331315876,0.32079578683900456,0.655498197629734,0.4990625906645642
RU-SAM,0.3625063375,0.1412793075,0.18623213749999998,0.31181389000000004,0.28082986625,0.39890600125000003,0.25343517875,0.28976448250000003,0.16931154625,0.43145432375,0.25615132500000004,0.13073736625000001,0.06872963875,0.07063498874999999,0.25540698625,0.066111545,0.13696354624999998,0.03946532875,0.37035477125,0.15409968125,0.06713410125,0.16637792375000002,0.21670524000000002,0.04273055125,0.28143379375,0.16689477625,0.1040358075,0.2241574725,0.3600549292903494,0.14008888345052192,0.18675509089603978,0.3129768999150913,0.28179620310155723,0.39956104791227626,0.25390042724068834,0.29157917878445133,0.1730768645570646,0.4310939921047327,0.2564474253521138,0.1323712783428591,0.06982726428218868,0.07733429479386024,0.22702843148919377,0.06807519118607064,0.1431592766978864,0.03508029243730216,0.32920424139876575,0.1369774951990231,0.05967475742739747,0.14789148614357475,0.19262687980494436,0.03798271254479338,0.3213162049686562,0.1700014759129755,0.09514122325504909,0.19925108671443928
RU-SAR,0.237217445,0.0230172175,0.0462673975,0.37730459375000003,0.1285838075,0.5598571849999999,0.13153199,0.397029725,0.04766431125,0.29234423625,0.08994711875,0.03267347125,0.01207116125,0.02986995625,0.2329502275,0.217850005,0.59598636625,0.052955709999999996,0.2323366975,0.191598445,0.25223195625,0.1008098925,0.15292136250000002,0.32790175875,0.19341532749999996,0.25465096875,0.7529513162499999,0.5928510075,0.28601655908128015,0.05057004260038129,0.09369719280630497,0.36175154212041655,0.17125633399062568,0.5109599555038709,0.1849944876209482,0.3681340294828824,0.07470226277230389,0.3475836033363775,0.12063941339282146,0.06070970601912496,0.019595271732012087,0.0654060492357511,0.13333927888742925,0.18513500657127274,0.4693623315272672,0.07574856951562554,0.15472477727370282,0.15357278572346791,0.1735463103465117,0.08725962482004733,0.07646068080097347,0.24488633752761851,0.23213652801559806,0.21472095871255936,0.5709948598379979,0.35470725278971754
RU-SE,0.364938,0.156699415,0.196126425,0.29354014,0.30292338500000004,0.389299465,0.23508609,0.270226095,0.164315255,0.44042103,0.314891735,0.112618315,0.07168312,0.03245574,-0.0,0.004495045,0.16383808,0.131964565,0.257672165,-0.0,-0.0,0.02767727,-0.0,-0.0,0.54137188,0.04533415,0.201553455,-0.0,0.36668901889632544,0.1598749419817013,0.2075656769307705,0.3138676887296432,0.2849282274318273,0.3973069104352228,0.2558763368581177,0.28718806723639023,0.17223326046168597,0.42650380731506343,0.23961531345114695,0.12353542342918766,0.08821797017532214,0.09842066040483327,0.0,0.11839372700998438,0.2098303391937597,0.07811025923935919,0.1288360819651729,0.0,0.0,0.013838635004881115,0.0,0.055109564731960554,0.5549148500411379,0.1717569362758028,0.18216991783512088,0.0
RU-SMO,0.27830508699999995,0.029845821111111108,0.04849214444444445,0.32475520988888895,0.1428996382222222,0.5236100692222222,0.10371617262222221,0.31095977811111114,0.03692453222222222,0.43415325244444447,0.1406074181111111,0.018019065555555557,0.008901076666666667,0.03279545316533333,0.12108976777777777,0.15563794,0.5050961275555556,0.13482272333333334,0.2650471566666667,0.2614251877777778,0.11560472555555555,0.12125763111111112,0.040891079999999996,0.19835791783333334,0.41467387877777767,0.17491348444444446,0.4995542727333333,0.2707950388888889,0.28006995901520954,0.01790749248148604,0.04190214109031871,0.34372566256141784,0.12076284044008324,0.5296809154574768,0.09340244056858095,0.34000095113497913,0.026381677011973227,0.4423218379042853,0.10726571986316692,0.010811439495391845,0.005340646113094486,0.043889714109212455,0.09064262852430026,0.1803435191813034,0.5621406159579756,0.1015811926961616,0.18623823157869862,0.1568551130426086,0.10847020805388098,0.10047603120910184,0.024534647668984173,0.1947185517244291,0.3819662003257904,0.18904339045137186,0.5139990137073293,0.22824559253694415
RU-STA,0.36997925111111113,0.06208320999999999,0.11149751444444443,0.31913477444444444,0.20481138444444447,0.47464322555555555,0.20180505666666668,0.35513747444444443,0.08957122000000001,0.4474430166666667,0.13472542777777777,0.051609574444444445,0.029238671111111107,0.06929635777777778,0.07547878111111112,0.15605435555555555,0.3997142888888889,0.05869457111111111,0.23983535,0.11120448777777778,0.05531534666666666,0.07084954111111111,0.029620723333333335,0.2159328788888889,0.2177347955555556,0.11605648777777779,0.40969506444444437,0.02412731222222222,0.36541937815915887,0.09374028432733153,0.13097953877442012,0.31866226831020095,0.22056559484160093,0.451347807702395,0.21332077838626168,0.3077878447470109,0.11274188804037341,0.4451326977880906,0.1679554856502075,0.07877078285666905,0.04228880475099153,0.06026392628329537,0.1075505007434164,0.1544969772571729,0.3395115225519878,0.091880114832222,0.29418352291024524,0.12187517930527979,0.03857212541721954,0.08859801395915523,0.04810288694514187,0.1238090878729,0.27293627712394725,0.14714119177405674,0.332121574849779,0.020745694276281253
RU-SVE,0.1676795330434783,0.046330783913043475,0.0675384995652174,0.38799070782608697,0.11414881782608695,0.5838750547826087,0.11280926260869566,0.4453577539130434,0.057686471739130434,0.19226230304347827,0.09938675869565217,0.033438968695652174,0.02158169347826087,0.0585786995652174,0.20517042260869564,0.19567353478260865,0.6229125486956523,0.07672179434782608,0.27670143391304347,0.2957889860869565,0.33573586956521745,0.14388701695652173,0.09936098521739127,0.3450150182608696,0.3703499243478261,0.33891847434782607,0.8380414078260869,0.6163956904347826,0.20365504400919573,0.03307351504620963,0.05772538244496187,0.34927793920406897,0.10056816213549587,0.5826936004519709,0.09689571705956014,0.39843741911008146,0.049409078350901234,0.25631109442857775,0.07770911681823532,0.023602561397528036,0.014419525608990161,0.05469832000711019,0.1426530705844473,0.21096721294395443,0.6213688750510346,0.12516084456383772,0.1480030928526133,0.16564170663397515,0.2923155942038697,0.07880083210854655,0.055315450299718315,0.2859842337501543,0.4080223615922948,0.3566833222000963,0.7827865426074835,0.48737310742756934
RU-TA,0.27886168857142857,0.093014265,0.10953936285714284,0.35046025357142857,0.15438373642857145,0.5085430142857142,0.15952656285714287,0.3594462735714285,0.08984462285714287,0.291969565,0.14297253428571427,0.07053034285714285,0.03696819642857142,0.058486905,0.149015985,0.1676252,0.44422145500000004,0.08396116428571429,0.31688495857142857,0.19478630428571428,0.17738769071428573,0.1340701192857143,0.07388782714285713,0.2338850821428571,0.2642058507142857,0.24582924000000003,0.5780634792857143,0.44204786071428576,0.26671080098632016,0.07095956543208994,0.08967841216219305,0.34587797602048076,0.13271194930285882,0.5258062882491024,0.14386899739862938,0.3554228147599127,0.082829098880393,0.3059966967141068,0.11563979962168293,0.05196972584028458,0.02723972388552259,0.06053129773076372,0.14076897916108816,0.1979880255090216,0.5081196669299237,0.1066457468066704,0.23349418022971682,0.1472778993275499,0.19702726698824288,0.0987885085962126,0.05954507629018047,0.2530473641901536,0.3084936220522167,0.28079315600578736,0.6521147763219631,0.4603713127834102
RU-TAM,0.37028139250000003,0.0570951575,0.08029673500000001,0.3279921175,0.184570285,0.4713406375,0.26426779,0.2823646425,0.048497215,0.5257187375,0.0726668,0.0307465075,0.025072695,0.0756605675,0.0212343475,0.2639191875,0.39742234500000007,0.02789006,0.20653586,0.026060985,-0.0,0.0473510875,-0.0,0.2718452125,0.02899113,0.13874923,0.2661740975,-0.0,0.3632250641166429,0.0754754951122764,0.09217938045884964,0.3206842237989199,0.22253660375357048,0.4556811209219224,0.2295816741895682,0.2924295532403961,0.09370886338707464,0.5074548995799234,0.1478476080321624,0.04587113628301014,0.031576765826286414,0.06390910604048425,0.012133913164799547,0.15399628431801035,0.3513493621685247,0.0406266687685845,0.19918355461858556,0.014891991494380674,0.0,0.038469848364801974,0.0,0.15842452233781584,0.1667080760636329,0.08931793310898484,0.26879297210757286,0.0
RU-TOM,0.50280273,0.0,0.0,0.0,0.0,0.48882535,0.0,0.0,0.0,0.712752535,0.0,0.0,0.0,-0.0,-0.0,0.24967233,0.510496665,0.80526645,-0.0,0.25275239,-0.0,-0.0,-0.0,-0.0,0.791489055,0.30696328500000003,0.73428396,0.84391862,0.3763704269747076,0.0,0.0,0.12542530966552404,0.0,0.5458478357723644,0.0,0.11683009452375959,0.0,0.5369720550037336,0.0,0.0,0.0,0.0,0.05045042368861687,0.29130873623712517,0.628055133385655,0.606232037738232,0.0,0.19814251913072634,0.12451024465424997,0.0,0.0,0.12073602011783863,0.7093483831306094,0.3543090296211884,0.9198496189423878,0.9326687697097785
RU-TUL,0.20000853,0.0522137,0.07508335666666667,0.32753915333333333,0.10418007,0.5828444533333333,0.08269670666666666,0.4343484166666666,0.06145785,0.28115790999999996,0.11179671000000001,0.044064816666666666,0.03687471,0.07698970666666667,0.15287941333333332,0.13155803666666666,0.5695607166666666,-0.0,0.3227485233333333,0.08302220666666667,0.21050808666666665,0.09622866333333334,0.055674100000000004,0.27636075666666665,0.3263761733333333,0.14565536666666665,0.6280338066666666,0.19150037333333333,0.2778535253077984,0.06918625397434075,0.08949551606837598,0.3304634233165336,0.162260772447849,0.5141809373371264,0.15617115554170016,0.36149149126486324,0.0719928406760026,0.36405700502162447,0.14672851419905228,0.05642190156382002,0.04041006531743449,0.06678569705827905,0.09172764707820269,0.142235144532783,0.4814592939348518,0.048847275302032624,0.19364911309967262,0.049813324198567675,0.12630485203500735,0.05773719739632802,0.03340445916748126,0.16581645420392205,0.4013699632286774,0.15254236151794356,0.5109127624508591,0.11490022358150527
RU-TVE,0.2751420364705882,0.021196870000000003,0.045998868235294116,0.2877144535294118,0.0831873588235294,0.5604939429411764,0.08090208176470588,0.33739648941176464,0.03529110941176471,0.4051430717647058,0.06950126764705883,0.024470481176470587,0.01439507176470588,0.05974145411764706,0.1563640370588235,0.19618623294117643,0.5635003047058824,0.1445405023529412,0.20595879352941177,0.11406631235294118,0.1966894617647059,0.11240271470588235,0.08953541294117648,0.2571563511764706,0.49274978823529414,0.2631150135294118,0.530342228235294,0.2822275064705882,0.29709464185267287,0.023612544946201262,0.05362134923150749,0.26514451896595853,0.09854876593356111,0.5454590611331358,0.09799919670950345,0.29829169812205875,0.0353587301528558,0.4499392797340225,0.08752918366086278,0.02512042349495784,0.014387428857808589,0.05856844493632265,0.11271910402812463,0.1835869380111671,0.5152240661451273,0.17566559915404248,0.15318799340206507,0.08335348467463495,0.14405459081218303,0.08641560645058056,0.05686736085647784,0.20001947521796784,0.49785557661305213,0.2384047076627929,0.45573704211905425,0.210023329236916
RU-TY,0.42624091,0.057520595,0.057520595,0.16831652,0.110472485,0.492708495,0.15132509,0.151839335,0.0,0.59839761,0.08229337,0.0,0.0,0.08214348,-0.0,0.18575549,0.50049078,0.43006292,-0.0,-0.0,-0.0,-0.0,-0.0,-0.0,0.5815792399999999,0.294269685,0.327911085,0.193368605,0.4262409134113381,0.05752059698867777,0.05752059698867777,0.16831652008619208,0.11047248599084906,0.4927084961328635,0.1513250880798115,0.15183933517301335,0.0,0.5983976083333762,0.0822933697180883,0.0,0.0,0.08214348123966322,0.0,0.1857554887278224,0.5004907836768304,0.43006292001611274,0.0,0.0,0.0,0.0,0.0,0.0,0.5815792355571698,0.2942696870808848,0.3279110841911983,0.1933686034188145
RU-TYU,0.35381754,0.20728108,0.23041078,0.29371094,0.30813418,0.36031732,0.26017023,0.26624624,0.20846273,0.38580735,0.32261344,0.1557687,0.09216431,-0.0,1.73266033,-0.0,-0.0,-0.0,1.86553915,1.27796058,0.60329907,0.91755675,1.70409893,0.41357712,-0.0,-0.0,0.18474622,2.34662556,0.336699695386905,0.1440786088664358,0.17534296789019774,0.3176565823483538,0.24131453418732635,0.4197504924149337,0.20814145614276053,0.30278237434176214,0.15725643285734936,0.4379226130447339,0.22972319422238185,0.1076271553771941,0.050018271090301235,0.06474998590757708,0.35410285731097907,0.08112552164686612,0.2062205637614071,0.060593560792036684,0.5491818005476409,0.340037428524854,0.12065981330804695,0.21047937365453118,0.3408197860225773,0.19284504024839735,0.2625325868498235,0.07614892959604713,0.17578121858781542,0.5440759467038698
RU-UD,0.3484914333333333,0.17597310666666668,0.22228720666666665,0.3088173066666667,0.29970015,0.37522109666666664,0.26334776,0.28456078,0.19235395,0.40298078,0.27133821333333336,0.17207865666666666,0.12913518000000002,0.06406475666666667,0.14850243333333332,0.053993110000000004,0.03490340666666667,-0.0,0.44142876000000003,0.13070981666666667,-0.0,0.19612494,0.061387739999999996,-0.0,0.29397892666666664,0.18115412,0.033032063333333334,-0.0,0.37802748512240464,0.13604725185473884,0.16645300129726373,0.30892758656786906,0.26528795698638363,0.4050879190500445,0.2768882879747449,0.22669998830524918,0.12718334610133952,0.4577040765811615,0.22686027708875764,0.11436879791639214,0.07479024691349319,0.06952739811582297,0.07425121709034435,0.14078142359193246,0.23090094081643367,0.09895124697181674,0.22071438003217017,0.06535490783495732,0.0,0.09806246916576293,0.03182899286492236,0.0,0.3504707529623763,0.2030534066334555,0.21314921690282249,0.0
RU-VGG,0.26636427111111105,0.05644421444444444,0.11085018111111111,0.32701781333333335,0.16606601555555556,0.5267353255555555,0.16803652333333333,0.3979560944444444,0.11061043555555555,0.3343584588888889,0.1237242288888889,0.05266898777777778,0.021749115555555556,0.09172007333333332,0.15914795111111113,0.1338011811111111,0.4088449266666667,0.05286769666666667,0.36354909,0.2846606866666666,0.18111460000000001,0.17534020666666664,0.10930540444444443,0.27435555333333334,0.24584684555555558,0.19158957444444447,0.47420358666666673,0.32920697222222217,0.2188944788361971,0.03275437083294792,0.06466789873458063,0.32947352748467423,0.11349199536306198,0.5729620020560896,0.09834152394111129,0.40605893126641146,0.0701022867279781,0.3159565746749044,0.08608590985070343,0.027334241122024563,0.01030221222460236,0.07170244602257586,0.12233854638280237,0.1619541964343184,0.550510696649739,0.08956684039354473,0.17220746336835743,0.15325316309238787,0.22612610637510785,0.08305588704101584,0.05748160452944779,0.25670266919677925,0.42110123603829835,0.2374533014809907,0.6178383684326736,0.350650138767292
RU-VLA,0.2251853263636364,0.03204498,0.04827754636363637,0.28146114636363634,0.12545080636363637,0.5851111718181818,0.08500347181818181,0.3503757954545455,0.05531676272727273,0.3515235672727272,0.06723205909090908,0.022181170000000004,0.014342388181818181,0.05199496818181819,0.10881267181818183,0.18198008454545453,0.5068697209090909,0.11454389727272728,0.27429724363636365,0.1758325490909091,0.2239691290909091,0.15607808272727275,0.02035211909090909,0.21959207181818183,0.3968894709090909,0.35452231363636366,0.6099886854545454,0.20002480090909092,0.2547232586348796,0.04001602627334962,0.05911490737311213,0.28657873029513375,0.1366177190550371,0.5620657767242108,0.1043541285961558,0.3389654963409083,0.0506098185551694,0.3804957802538001,0.08635383295636345,0.02577389905175276,0.00928036928926479,0.05749847513524739,0.10012738095082017,0.15763613374470203,0.45829187573652297,0.1419246051350896,0.2447540391806028,0.19918279789478913,0.19969644282589424,0.1388593404626048,0.026896371238908926,0.19125142157427152,0.36167963406967113,0.2909012306583301,0.5403159499990245,0.21983010738403277
RU-VLG,0.24526204222222217,0.06926763666666666,0.06967940111111111,0.3457295722222222,0.13594220555555556,0.5111626044444444,0.1323237822222222,0.39123072999999997,0.06411905444444445,0.3475452566666667,0.11352730777777777,0.05139651333333333,0.018248822222222225,0.09175188555555557,0.15723480444444443,0.12613056,0.48492474555555554,0.05472851888888889,0.23789961222222222,0.12053751333333335,0.21942609666666668,0.12325951111111112,0.06984977333333334,0.30029572777777774,0.19984839222222225,0.20539016555555556,0.6123991155555556,0.38791262888888883,0.27300889086636076,0.056673521614425515,0.05701041895004834,0.33977216608314087,0.14554556812531919,0.5083392398870227,0.14755207730943962,0.3496369821161563,0.061199809321841644,0.3873379275634192,0.10713828980088912,0.042051693390699946,0.014930854305671966,0.0754522469429806,0.12864665715296805,0.16473127307004018,0.49076846349682757,0.07129755117023316,0.19464513754507878,0.09862160160809824,0.17953044349524497,0.1008486903575874,0.05714981488881578,0.24918101226130002,0.23137109420020677,0.22948685350752981,0.5834840010667203,0.31738306064940686
RU-VOR,0.3702499083333333,0.10000066,0.1500618433333333,0.3106513,0.23488189166666665,0.43636556333333326,0.21236017999999998,0.3238122483333333,0.11745016000000001,0.4383189683333333,0.19018073000000002,0.08328662333333332,0.05809132,0.041119405000000005,0.30564414833333337,0.11348686666666669,0.3018538333333333,0.059086465,0.5896222966666667,0.3266770033333333,0.050354869999999996,0.1988848,0.18168765166666667,0.19221216666666666,0.23712460333333332,0.109679845,0.262350225,0.2835955233333333,0.30916973181805524,0.07494461897093013,0.1170614337452034,0.34249589952481546,0.1776257242792392,0.4839372746702118,0.1887556159784518,0.3310410339684137,0.09835729334285004,0.37465551908818334,0.13870022309085164,0.0698384840381225,0.04210594648369923,0.051899343913841746,0.19604408946569254,0.19989190797026282,0.43818687120346844,0.0603027130443702,0.3296432833447667,0.17818745598671326,0.1257604840493616,0.1129901589331062,0.09910235603404359,0.20193531377497778,0.32677687409225925,0.24529642452903053,0.4547147495000426,0.3225260264539269
RU-YAN,0.3875067083333334,0.15363593,0.15601034833333335,0.24720035666666665,0.28133167833333333,0.40306154,0.217743405,0.19866746833333335,0.13522485666666667,0.4627038833333334,0.32608221833333334,0.08772218999999999,0.040146480000000005,0.041516863333333334,0.075877945,0.012907009999999998,0.19051682000000003,0.264935225,0.24746098166666672,0.12496538833333333,-0.0,0.06499764166666668,0.03723452666666666,-0.0,0.7178938483333334,0.089972085,0.2375147866666667,0.16842564833333332,0.38750670851301683,0.15363593067748083,0.15601034803038025,0.24720035731229154,0.28133167771135154,0.4030615406969971,0.21774340546892187,0.19866746789839906,0.13522485662861697,0.46270388329551176,0.3260822171221865,0.08772218971910965,0.040146480789398926,0.041516862639163495,0.07587794540383735,0.012907010552191978,0.19051682040376805,0.26493522570581046,0.24746098290083193,0.12496538807192596,0.0,0.06499764252014524,0.03723452709887395,0.0,0.7178938499131187,0.0899720846944973,0.23751478549476437,0.16842564883378272
RU-YAR,0.3028599216666667,0.07081707999999999,0.07260763999999999,0.339183155,0.17328860499999998,0.50111866,0.14397157333333335,0.3103361983333333,0.031113164999999998,0.44834479499999996,0.11770668,0.04214324833333333,0.016995991666666665,0.04689519166666667,0.17890047833333333,0.16601156166666667,0.4696489783333333,0.07197208666666667,0.250419775,0.14195373666666666,0.11682514,0.13894903666666666,0.130685815,0.15819758833333333,0.322851425,0.20850438500000001,0.40677298666666667,0.209869525,0.28138958792334745,0.05544849004868745,0.07483260438512856,0.35406480305910626,0.15608312494080848,0.5155890102196685,0.14412951182305933,0.3331146519715485,0.05391740291969927,0.419324222923719,0.09925925515951645,0.0363326018579762,0.011330661591233917,0.06049486278920562,0.15457874722624024,0.19603271164745584,0.5033621001023293,0.056279380971070485,0.16694651662289448,0.09463582419116535,0.1485258100443679,0.09263269135986597,0.08712387707769166,0.21012769109251658,0.3219705723803679,0.24307571746378695,0.4745217238532961,0.24334744883537332
RU-YEV,0.455721165,0.04668913,0.15716392,0.33976428000000003,0.27817595500000003,0.3978875,0.27077352499999996,0.27961300499999997,0.074000525,0.43219365,0.223824505,0.03700026,0.03700026,-0.0,-0.0,0.09223141,0.115593935,0.11929416999999999,0.21446075,-0.0,0.00265918,0.07454735,-0.0,-0.0,0.040926475,0.03296716,0.1565141,-0.0,0.45572116464044204,0.046689132277660715,0.15716391645027694,0.3397642796474336,0.27817595562728914,0.39788750103620274,0.2707735237460922,0.2796130067538083,0.07400052385130199,0.432193646384153,0.2238245072388437,0.03700026192565099,0.03700026192565099,0.0,0.0,0.09223141236652478,0.11559393639191028,0.11929417123530991,0.21446075228994596,0.0,0.0026591808060999144,0.0745473524410127,0.0,0.0,0.04092647400119985,0.03296716030123995,0.15651409837667724,0.0
RU-ZAB,0.31582682666666667,0.04394190888888889,0.07047069555555556,0.26598017777777777,0.14431947555555558,0.5023944622222223,0.11926599222222221,0.24827881222222223,0.04815591333333333,0.44410084,0.1472865322222222,0.037366237777777776,0.016556534444444444,0.018356956666666667,0.08495153000000001,0.1547380588888889,0.42533616777777783,0.2497990433333333,0.18539359555555557,0.16602253666666666,0.12671473111111112,0.08796441444444444,0.02338088888888889,0.11281514444444445,0.3845312088888889,0.2085785411111111,0.6010610600000001,0.44325890888888886,0.31497689952571856,0.030421321529350922,0.06680788116836256,0.2685739252448371,0.13370741071224868,0.5234445511904696,0.11779020994480284,0.2655925767685466,0.0521233948699683,0.42909371528760276,0.11493953666839671,0.032294901847485284,0.011462216484437513,0.030080123737723397,0.06699505468968457,0.19393471322356473,0.47304665577074456,0.23366681446256404,0.12834941174054404,0.13415352353086643,0.15117995947859997,0.06089844029895165,0.016186769140364612,0.14953873557138794,0.4126371402745272,0.24837755186026492,0.6561986814816958,0.4523610814888307
UA-43,0.24516382454545455,0.030489342727272727,0.05998662090909091,0.37419253909090916,0.13439094727272727,0.5716745581818183,0.09268358454545454,0.39720424727272724,0.11762771363636365,0.32854439272727276,0.07359397090909091,0.01963860272727273,0.006463078181818182,0.07277263545454545,0.05100967454545455,0.23021406000000003,0.6005444445454544,0.05058566363636364,0.09840086,0.09121274363636363,0.1891490881818182,0.028149915454545458,0.0036457363636363638,0.2826275727272727,0.28202468454545454,0.26511735545454546,0.7189538218181818,0.33468687999999996,0.245163824166887,0.030489342648068428,0.05998662098859476,0.37419254006842223,0.13439094768308776,0.5716745581959476,0.09268358411412138,0.3972042480339269,0.11762771372972095,0.32854439391777074,0.07359396974494838,0.01963860238904618,0.006463078218895765,0.0727726365861191,0.051009676080235426,0.23021406004964276,0.6005444447434922,0.05058566353712013,0.09840086041439579,0.09121274404606271,0.18914908843526998,0.028149915183049216,0.0036457355522822752,0.2826275719798938,0.2820246839386425,0.2651173558184147,0.7189538212239235,0.3346868805668746
